{"learner":{"attributes":{"best_iteration":"9","best_ntree_limit":"10"},"feature_names":["song_duration_ms","acousticness","danceability","energy","instrumentalness","key","liveness","loudness","audio_mode","speechiness","tempo","time_signature","audio_valence"],"feature_types":["float","float","float","float","float","float","float","float","float","float","float","float","float"],"gradient_booster":{"model":{"gbtree_model_param":{"num_trees":"10","size_leaf_vector":"0"},"tree_info":[0,0,0,0,0,0,0,0,0,0],"trees":[{"base_weights":[4.056408E-3,1.1099346E-1,-1.747846E-1,-2.3724404E-1,1.1942864E-1,1.6598946E-1,-6.1815266E-2,5.88799E-1,-2.539444E-1,-3.979292E-1,-1.6580221E-1,-2.0028658E-1,8.3313696E-2,4.7696694E-3,2.0008557E-1,1.6571185E-1,4.2942482E-1,1.1300736E-4,3.4369589E-3,2.514247E-1,-1.3661678E-1,4.8293093E-1,5.5589657E-3,-1.7959009E-3,-6.4311265E-3,8.732239E-3,3.1280175E-3,-5.0890166E-3,-1.5707334E-3,1.622402E0,6.668882E-2,8.438786E-1,-5.792941E-1,-2.4032395E-3,2.3125086E-3,6.2428165E-4,-2.7450666E-2,8.835919E-2,-2.6857919E-1,-1.8511233E-3,-6.871652E-3,5.643278E-2,-3.3121556E-1,-6.221902E-3,1.2774879E-2,-1.8751126E-3,6.943303E-3,-2.7450684E-2,-1.0498458E-1,2.4401026E-3,-1.2828389E-3,2.066581E-3,-2.7450664E-2,1.49145825E-2,5.529667E-3,-2.5848488E-3,5.3818403E-3,2.066581E-3,1.4594742E-2,1.7209014E-2,2.7450666E-2],"categories":[],"categories_nodes":[],"categories_segments":[],"categories_sizes":[],"default_left":[false,false,true,true,false,true,false,true,false,true,false,true,false,true,false,false,true,false,false,false,true,true,true,false,false,false,false,false,false,true,false,false,true,false,false,false,false,true,true,false,false,false,true,false,false,false,false,false,true,false,false,false,false,false,false,false,false,false,false,false,false],"id":0,"left_children":[1,5,3,7,19,13,11,31,9,23,27,37,29,41,15,17,25,-1,-1,21,47,53,35,-1,-1,-1,-1,-1,-1,59,33,57,51,-1,-1,-1,-1,45,39,-1,-1,49,43,-1,-1,-1,-1,-1,55,-1,-1,-1,-1,-1,-1,-1,-1,-1,-1,-1,-1],"loss_changes":[1.2850151E2,3.9962074E1,4.6203262E1,2.8610977E1,1.4880537E1,1.7533836E1,2.0400158E1,1.2245822E1,2.579956E1,1.4561333E1,1.3275169E1,1.0240135E1,1.2682206E1,9.665445E0,2.0755814E1,3.0540382E1,1.4301495E1,0E0,0E0,1.6536366E1,8.827844E0,7.2313423E0,1.1281418E1,0E0,0E0,0E0,0E0,0E0,0E0,7.371683E-1,1.2068777E1,5.1326923E0,7.638294E0,0E0,0E0,0E0,0E0,9.33589E0,1.3035622E1,0E0,0E0,8.778711E0,1.1434677E1,0E0,0E0,0E0,0E0,0E0,6.101205E0,0E0,0E0,0E0,0E0,0E0,0E0,0E0,0E0,0E0,0E0,0E0,0E0],"parents":[2147483647,0,0,2,2,1,1,3,3,8,8,6,6,5,5,14,14,15,15,4,4,19,19,9,9,16,16,10,10,12,12,7,7,30,30,22,22,11,11,38,38,13,13,42,42,37,37,20,20,41,41,32,32,21,21,48,48,31,31,29,29],"right_children":[2,6,4,8,20,14,12,32,10,24,28,38,30,42,16,18,26,-1,-1,22,48,54,36,-1,-1,-1,-1,-1,-1,60,34,58,52,-1,-1,-1,-1,46,40,-1,-1,50,44,-1,-1,-1,-1,-1,56,-1,-1,-1,-1,-1,-1,-1,-1,-1,-1,-1,-1],"split_conditions":[3.085356E-1,5.356057E-1,6.6424173E-1,-1.5795584E0,3.7958622E-3,-9.952717E-1,5.0082273E0,6.228043E-1,-3.8654512E-1,-3.2277918E-1,4.4565635E0,1.8205123E0,-1.5969378E0,-1.0437579E0,2.657521E0,-7.3568493E-1,-1.4562132E0,1.1300736E-4,3.4369589E-3,4.3034312E-1,1.3431658E0,1.4629203E0,2.1709037E0,-1.7959009E-3,-6.4311265E-3,8.732239E-3,3.1280175E-3,-5.0890166E-3,-1.5707334E-3,9.463054E-1,2.7886894E-1,1.6925563E0,5.0006266E0,-2.4032395E-3,2.3125086E-3,6.2428165E-4,-2.7450666E-2,1.0186474E0,1.5547047E0,-1.8511233E-3,-6.871652E-3,-8.343252E-2,1.2844299E0,-6.221902E-3,1.2774879E-2,-1.8751126E-3,6.943303E-3,-2.7450684E-2,9.43672E-1,2.4401026E-3,-1.2828389E-3,2.066581E-3,-2.7450664E-2,1.49145825E-2,5.529667E-3,-2.5848488E-3,5.3818403E-3,2.066581E-3,1.4594742E-2,1.7209014E-2,2.7450666E-2],"split_indices":[2,6,1,8,0,5,10,6,5,8,10,9,0,5,9,2,2,0,0,6,9,9,2,0,0,0,0,0,0,6,1,9,10,0,0,0,0,1,6,0,0,8,8,0,0,0,0,0,8,0,0,0,0,0,0,0,0,0,0,0,0],"split_type":[0,0,0,0,0,0,0,0,0,0,0,0,0,0,0,0,0,0,0,0,0,0,0,0,0,0,0,0,0,0,0,0,0,0,0,0,0,0,0,0,0,0,0,0,0,0,0,0,0,0,0,0,0,0,0,0,0,0,0,0,0],"sum_hessian":[6.719128E3,4.204856E3,2.5142717E3,2.07398E3,4.4029175E2,3.189731E3,1.01512506E3,4.109931E1,2.0328806E3,7.71916E2,1.2609646E3,5.194778E2,4.9564728E2,5.5682806E2,2.6329028E3,2.2897166E3,3.4318625E2,8.007967E2,1.4889199E3,2.9052225E2,1.4976949E2,1.4963063E2,1.4089162E2,1.6143823E2,6.104778E2,1.6938109E2,1.7380516E2,2.5265999E2,1.0083046E3,5.2966523E0,4.9035062E2,3.3732956E1,7.366356E0,1.45281E2,3.450696E2,1.3814162E2,2.75E0,9.939106E1,4.2008673E2,2.6652692E2,1.5355983E2,4.8261786E2,7.421021E1,6.766356E1,6.5466523E0,6.45881E1,3.4802963E1,2.499998E0,1.4726949E2,2.6670773E2,2.1591011E2,4.866356E0,2.5E0,1.751784E1,1.321128E2,1.26123764E2,2.114572E1,8.110593E0,2.5622362E1,2.6802964E0,2.616356E0],"tree_param":{"num_deleted":"0","num_feature":"13","num_nodes":"61","size_leaf_vector":"0"}},{"base_weights":[-1.0835898E-2,9.7247146E-2,-1.4833845E-1,-2.0150103E-1,2.2790353E-1,5.725278E-2,3.1748772E-1,-6.7595124E-1,-1.7480835E-1,-2.467932E-1,2.5528027E-2,-2.3556625E-2,1.7227003E-1,1.7134272E-2,2.8431213E-1,-3.5669473E-3,7.463007E-3,5.8607047E-4,-1.6772415E-2,-3.426863E-1,4.4687106E-3,3.7232497E-1,-2.0931005E-2,2.6220736E-1,9.1000354E-1,-4.926027E-4,4.6055648E-3,-7.255242E-2,3.7224472E-1,6.387093E-1,2.152154E-1,1.2438551E-3,1.0785468E-2,-2.8568935E-1,7.624188E-1,2.0320767E-3,1.076635E-2,-1.3567646E-2,5.756257E-4,-7.7838814E-1,5.7805583E-2,-8.9322645E-3,4.4056294E-3,-1.307073E-3,8.8084216E-4,-3.1334828E-3,2.7432881E-2,-1.3466999E-1,5.726236E-1,-6.024171E-3,3.324033E-3,1.3282209E-2,-9.160401E-3,1.6107231E-2,2.3835816E-3,3.7466534E-4,-9.040268E-3,-3.6566644E-3,-1.2125199E-2,-1.0224113E-2,-2.741287E-2,2.1260053E-2,5.7374714E-3],"categories":[],"categories_nodes":[],"categories_segments":[],"categories_sizes":[],"default_left":[false,false,true,true,false,true,false,true,true,false,true,false,true,true,true,false,false,false,false,true,true,false,true,true,true,false,false,false,true,false,false,false,false,false,true,false,false,false,false,false,true,false,false,false,false,false,false,true,true,false,false,false,false,false,false,false,false,false,false,false,false,false,false],"id":1,"left_children":[1,5,3,7,21,11,27,39,9,15,37,19,13,17,25,-1,-1,-1,-1,57,43,23,47,41,53,-1,-1,33,29,31,35,-1,-1,55,61,-1,-1,-1,-1,59,45,-1,-1,-1,-1,-1,-1,49,51,-1,-1,-1,-1,-1,-1,-1,-1,-1,-1,-1,-1,-1,-1],"loss_changes":[1.0024049E2,3.326434E1,5.9374893E1,3.293918E1,1.3207211E1,2.9705671E1,1.2395527E1,1.0412838E1,3.551078E1,1.8741234E1,1.0831886E1,1.6788958E1,2.2924385E1,1.7521065E1,1.2564526E1,0E0,0E0,0E0,0E0,6.249771E0,1.0272379E1,1.3768406E1,9.111612E0,1.0357801E1,7.6707916E0,0E0,0E0,1.2715221E1,2.1295288E1,1.521418E1,1.2241827E1,0E0,0E0,6.644366E0,3.9357786E0,0E0,0E0,0E0,0E0,4.960823E0,9.424043E0,0E0,0E0,0E0,0E0,0E0,0E0,1.2985872E1,1.0633193E1,0E0,0E0,0E0,0E0,0E0,0E0,0E0,0E0,0E0,0E0,0E0,0E0,0E0,0E0],"parents":[2147483647,0,0,2,2,1,1,3,3,8,8,5,5,12,12,9,9,13,13,11,11,4,4,21,21,14,14,6,6,28,28,29,29,27,27,30,30,10,10,7,7,23,23,20,20,40,40,22,22,47,47,48,48,24,24,33,33,19,19,39,39,34,34],"right_children":[2,6,4,8,22,12,28,40,10,16,38,20,14,18,26,-1,-1,-1,-1,58,44,24,48,42,54,-1,-1,34,30,32,36,-1,-1,56,62,-1,-1,-1,-1,60,46,-1,-1,-1,-1,-1,-1,50,52,-1,-1,-1,-1,-1,-1,-1,-1,-1,-1,-1,-1,-1,-1],"split_conditions":[8.719713E-2,1.4633524E0,1.5662563E0,-1.5234007E0,-3.7106314E-1,5.428626E0,-1.1891688E0,8.819943E-1,4.8884672E-1,1.8431028E0,-1.7437387E0,-1.0642464E0,-5.2353674E-1,1.834739E0,-8.715094E-1,-3.5669473E-3,7.463007E-3,5.8607047E-4,-1.6772415E-2,1.2345407E0,-5.601561E-1,6.121261E-1,2.0902102E0,1E0,1.2673516E0,-4.926027E-4,4.6055648E-3,5.7337004E-1,-1.6332264E0,-2.15151E0,-4.675795E-1,1.2438551E-3,1.0785468E-2,-1.3452435E0,-1.5383269E0,2.0320767E-3,1.076635E-2,-1.3567646E-2,5.756257E-4,7.5048625E-1,9.209338E-1,-8.9322645E-3,4.4056294E-3,-1.307073E-3,8.8084216E-4,-3.1334828E-3,2.7432881E-2,6.0753284E0,4.412915E-1,-6.024171E-3,3.324033E-3,1.3282209E-2,-9.160401E-3,1.6107231E-2,2.3835816E-3,3.7466534E-4,-9.040268E-3,-3.6566644E-3,-1.2125199E-2,-1.0224113E-2,-2.741287E-2,2.1260053E-2,5.7374714E-3],"split_indices":[2,0,4,4,0,10,5,7,1,5,5,4,2,1,5,0,0,0,0,5,5,1,4,10,5,0,0,8,2,7,2,0,0,5,5,0,0,0,0,7,1,0,0,0,0,0,0,10,7,0,0,0,0,0,0,0,0,0,0,0,0,0,0],"split_type":[0,0,0,0,0,0,0,0,0,0,0,0,0,0,0,0,0,0,0,0,0,0,0,0,0,0,0,0,0,0,0,0,0,0,0,0,0,0,0,0,0,0,0,0,0,0,0,0,0,0,0,0,0,0,0,0,0,0,0,0,0,0,0],"sum_hessian":[6.74489E3,3.7764414E3,2.9684487E3,2.600939E3,3.675098E2,3.196057E3,5.8038464E2,1.3853535E2,2.4624036E3,1.8114967E3,6.5090686E2,1.8771788E3,1.318878E3,5.5307684E2,7.658012E2,1.7819962E3,2.950044E1,5.4189655E2,1.1180281E1,1.5154199E2,1.725637E3,2.3254353E2,1.3496626E2,1.9301392E2,3.9529617E1,1.0564065E2,6.601606E2,7.1448586E1,5.0893607E2,1.8871082E2,3.2022525E2,3.9930294E1,1.4878052E2,5.6919235E1,1.452935E1,2.8642816E2,3.37971E1,1.0366284E1,6.405406E2,1.21564255E2,1.6971104E1,1.1674438E1,1.8133948E2,6.4635614E2,1.0792808E3,1.4790815E1,2.1802883E0,1.1326251E2,2.170375E1,6.2668926E1,5.0593586E1,1.645953E1,5.2442203E0,2.911088E1,1.0418736E1,3.0948092E1,2.5971144E1,1.3280936E2,1.8732632E1,1.1831428E2,3.249978E0,4.4245276E0,1.0104822E1],"tree_param":{"num_deleted":"0","num_feature":"13","num_nodes":"63","size_leaf_vector":"0"}},{"base_weights":[-2.352446E-3,1.0125085E-1,-1.4125113E-1,-1.8164425E-1,1.6246217E-1,-4.517186E-2,-3.198816E-1,6.862914E-2,2.9776543E-1,1.9053547E-1,-8.462004E-3,3.9565057E-1,-2.2373417E-1,1.4582606E-1,-8.982005E-2,8.110598E-1,8.157352E-2,-6.835528E-3,2.5423503E-1,4.9383186E-2,-1.7708306E-1,-3.6575787E-3,2.2590363E-3,3.699299E-3,-5.732855E-4,-1.05049565E-1,-3.734674E-1,-4.761426E-3,-1.5453223E-2,4.112688E-1,-1.5328685E0,-1.4098592E0,1.11554444E-1,1.0900607E-3,5.518567E-3,1.3155126E-3,4.485226E-3,-1.3401775E-3,1.2570349E-2,2.1590398E-1,1.2474251E0,6.1159073E-3,-2.7622934E-3,3.1576357E-3,-1.8317457E-3,-2.8604977E-3,1.6421608E-3,-5.5637364E-3,1.3634606E-2,-2.7400777E-2,-1.2324284E-3,-5.1550376E-1,-1.1483481E-2,-1.2146138E-2,3.8491567E-3,7.339004E-3,-9.645801E-3,-1.9721764E-3,-2.7484337E-2,2.2109391E-2,9.404854E-3,-2.7579503E-2,-1.3281184E-2],"categories":[],"categories_nodes":[],"categories_segments":[],"categories_sizes":[],"default_left":[true,false,false,true,true,true,true,true,true,false,true,true,false,true,false,true,false,false,false,true,true,false,false,false,false,false,true,false,false,true,true,true,false,false,false,false,false,false,false,false,true,false,false,false,false,false,false,false,false,false,false,false,false,false,false,false,false,false,false,false,false,false,false],"id":2,"left_children":[1,7,3,5,15,19,25,9,11,17,13,29,51,33,37,39,31,45,35,23,21,-1,-1,-1,-1,49,27,-1,-1,41,61,57,43,-1,-1,-1,-1,-1,-1,47,59,-1,-1,-1,-1,-1,-1,-1,-1,-1,-1,55,53,-1,-1,-1,-1,-1,-1,-1,-1,-1,-1],"loss_changes":[9.616849E1,2.4538345E1,3.5025997E1,4.754013E1,1.7583155E1,1.5816413E1,1.441153E1,3.0851446E1,2.7818092E1,1.598901E1,2.5243895E1,1.3819946E1,5.3333745E0,1.1814901E1,1.0358411E1,9.651287E0,1.3324192E1,7.9111023E0,1.104805E1,1.48211775E1,1.6172281E1,0E0,0E0,0E0,0E0,7.211817E0,2.0023392E1,0E0,0E0,9.56884E0,9.927845E-1,4.4059286E0,8.481428E0,0E0,0E0,0E0,0E0,0E0,0E0,7.593571E0,4.380867E0,0E0,0E0,0E0,0E0,0E0,0E0,0E0,0E0,0E0,0E0,7.13272E0,1.2712132E1,0E0,0E0,0E0,0E0,0E0,0E0,0E0,0E0,0E0,0E0],"parents":[2147483647,0,0,2,2,3,3,1,1,7,7,8,8,10,10,4,4,9,9,5,5,20,20,19,19,6,6,26,26,11,11,16,16,13,13,18,18,14,14,15,15,29,29,32,32,17,17,39,39,25,25,12,12,52,52,51,51,31,31,40,40,30,30],"right_children":[2,8,4,6,16,20,26,10,12,18,14,30,52,34,38,40,32,46,36,24,22,-1,-1,-1,-1,50,28,-1,-1,42,62,58,44,-1,-1,-1,-1,-1,-1,48,60,-1,-1,-1,-1,-1,-1,-1,-1,-1,-1,56,54,-1,-1,-1,-1,-1,-1,-1,-1,-1,-1],"split_conditions":[1.378252E-1,1.5257056E0,8.8689977E-1,-2.244174E-1,1.5168703E0,-4.3557182E-1,-4.010063E-1,-2.6064608E-1,-8.241111E-1,-3.8649344E-1,-1.3810825E-1,1.3897202E0,2.431412E0,8.769571E-1,1.9593899E0,-6.0836007E-3,1.5472797E0,-3.1164125E-1,-5.9955704E-1,-5.401867E-2,7.5556594E-1,-3.6575787E-3,2.2590363E-3,3.699299E-3,-5.732855E-4,1.1381402E0,2.0298216E0,-4.761426E-3,-1.5453223E-2,1.2582576E0,-1.4137529E0,-6.902111E-1,-1.1877215E-1,1.0900607E-3,5.518567E-3,1.3155126E-3,4.485226E-3,-1.3401775E-3,1.2570349E-2,7.871897E-1,2.8681585E-1,6.1159073E-3,-2.7622934E-3,3.1576357E-3,-1.8317457E-3,-2.8604977E-3,1.6421608E-3,-5.5637364E-3,1.3634606E-2,-2.7400777E-2,-1.2324284E-3,-4.792816E-1,-7.4952E-1,-1.2146138E-2,3.8491567E-3,7.339004E-3,-9.645801E-3,-1.9721764E-3,-2.7484337E-2,2.2109391E-2,9.404854E-3,-2.7579503E-2,-1.3281184E-2],"split_indices":[2,0,1,3,9,0,8,3,2,7,0,4,9,8,8,7,9,4,2,8,8,0,0,0,0,9,2,0,0,8,2,8,3,0,0,0,0,0,0,2,8,0,0,0,0,0,0,0,0,0,0,3,2,0,0,0,0,0,0,0,0,0,0],"split_type":[0,0,0,0,0,0,0,0,0,0,0,0,0,0,0,0,0,0,0,0,0,0,0,0,0,0,0,0,0,0,0,0,0,0,0,0,0,0,0,0,0,0,0,0,0,0,0,0,0,0,0,0,0,0,0,0,0,0,0,0,0,0,0],"sum_hessian":[6.68284E3,3.827753E3,2.8550867E3,2.5199407E3,3.351459E2,1.2680653E3,1.2518754E3,3.282803E3,5.449501E2,1.27175E3,2.011053E3,4.588283E2,8.612176E1,6.9432654E2,1.3167264E3,3.7162453E1,2.9798346E2,3.1029898E2,9.6145105E2,7.3861786E2,5.2944745E2,4.196449E2,1.0980255E2,2.1628015E2,5.223377E2,2.499192E2,1.0019562E3,9.677937E2,3.4162445E1,4.551423E2,3.6859992E0,5.872049E0,2.9211142E2,5.514237E2,1.429028E2,3.020385E2,6.5941254E2,1.3065635E3,1.0162905E1,1.5720865E1,2.1441586E1,4.3099133E2,2.4150969E1,1.9688464E2,9.5226776E1,1.1963445E2,1.9066452E2,8.738321E0,6.9825444E0,1.9999893E0,2.4791922E2,3.6267193E1,4.985457E1,1.2488413E1,3.7366154E1,5.488358E0,3.0778835E1,1.8720677E0,3.9999812E0,1.3023202E1,8.418384E0,1.9999418E0,1.6860573E0],"tree_param":{"num_deleted":"0","num_feature":"13","num_nodes":"63","size_leaf_vector":"0"}},{"base_weights":[7.2282124E-3,6.4680725E-2,-1.6893831E-1,3.7805688E-2,3.7467E-1,2.4785602E-1,-4.7409437E-3,-2.8199935E-1,2.8643422E-2,-4.2241433E-4,2.7717778E-3,-7.255634E-1,-1.3951416E-1,-5.5162363E-2,-3.5365266E-1,-1.4945032E-1,1.2852503E-1,-5.0403653E-3,1.6702476E-3,-5.485768E-3,-1.0085249E-3,-1.3967772E-3,3.412367E-3,-1.0555621E0,-3.2612845E-1,-2.2234133E-2,-4.2783543E-3,4.108774E-1,-1.4552549E-1,2.7303569E-2,-3.8226572E-1,6.3518524E-2,2.9835922E-1,9.294515E-3,3.166086E-3,1.987515E-3,-1.3590032E-2,4.7410393E-1,1.4052838E-1,-2.7679743E-2,2.7823725E-3,8.488193E-3,4.3089846E-3,-2.7588613E-2,-3.177381E-3,-9.026654E-2,-8.325965E-1,8.581832E-1,-1.088145E0,-7.628499E-1,-2.7401393E-2,-5.0059273E-3,-1.3061886E-2,-2.7415352E-2,-1.0737174E-2,-2.1593317E-2,2.247557E-3,2.138362E-3,2.269013E-2],"categories":[],"categories_nodes":[],"categories_segments":[],"categories_sizes":[],"default_left":[false,true,true,false,true,false,false,false,true,false,false,false,false,true,true,false,false,false,false,false,false,false,false,true,false,false,false,true,true,false,true,true,true,false,false,false,false,true,false,false,false,false,false,false,false,true,false,true,true,true,false,false,false,false,false,false,false,false,false],"id":3,"left_children":[1,3,11,5,27,31,7,17,9,-1,-1,45,13,15,23,19,21,-1,-1,-1,-1,-1,-1,53,25,-1,-1,37,29,-1,43,35,33,-1,-1,-1,-1,41,39,-1,-1,-1,-1,-1,-1,47,49,57,55,51,-1,-1,-1,-1,-1,-1,-1,-1,-1],"loss_changes":[6.775726E1,4.205661E1,2.6964409E1,4.151632E1,7.5857162E0,7.284504E0,3.5756367E1,1.4284115E1,3.5504528E1,0E0,0E0,5.620682E0,2.8245026E1,1.9429117E1,8.5371475E0,1.4092293E1,1.0523543E1,0E0,0E0,0E0,0E0,0E0,0E0,4.2917233E0,7.931263E0,0E0,0E0,6.436268E0,1.3245582E1,0E0,5.7899423E0,1.4412442E1,1.5748226E1,0E0,0E0,0E0,0E0,7.0541687E0,9.574699E0,0E0,0E0,0E0,0E0,0E0,0E0,1.1279962E1,5.7422066E0,3.4119687E0,3.5270596E0,5.0170517E0,0E0,0E0,0E0,0E0,0E0,0E0,0E0,0E0,0E0],"parents":[2147483647,0,0,1,1,3,3,6,6,8,8,2,2,12,12,13,13,7,7,15,15,16,16,14,14,24,24,4,4,28,28,5,5,32,32,31,31,27,27,38,38,37,37,30,30,11,11,45,45,46,46,49,49,23,23,48,48,47,47],"right_children":[2,4,12,6,28,32,8,18,10,-1,-1,46,14,16,24,20,22,-1,-1,-1,-1,-1,-1,54,26,-1,-1,38,30,-1,44,36,34,-1,-1,-1,-1,42,40,-1,-1,-1,-1,-1,-1,48,50,58,56,52,-1,-1,-1,-1,-1,-1,-1,-1,-1],"split_conditions":[5.856479E-1,1.6706103E0,-1.5986624E0,-6.8906504E-1,5.1438254E-1,-6.486622E-1,-9.322545E-1,9E0,4.6983868E-1,-4.2241433E-4,2.7717778E-3,-6.764709E-1,4.942053E-2,7.7163965E-1,6.329684E-2,-4.8016563E-1,-3.537958E-1,-5.0403653E-3,1.6702476E-3,-5.485768E-3,-1.0085249E-3,-1.3967772E-3,3.412367E-3,-7.228365E-1,-1.8838648E0,-2.2234133E-2,-4.2783543E-3,-4.9728242E-1,-4.7602358E-1,2.7303569E-2,5.3980124E-1,-6.7331195E-1,-4.1757149E-1,9.294515E-3,3.166086E-3,1.987515E-3,-1.3590032E-2,1.8118819E0,-4.7844145E-1,-2.7679743E-2,2.7823725E-3,8.488193E-3,4.3089846E-3,-2.7588613E-2,-3.177381E-3,4E0,1.9423916E0,7.7163965E-1,6.8734944E-1,-6.4046454E-1,-2.7401393E-2,-5.0059273E-3,-1.3061886E-2,-2.7415352E-2,-1.0737174E-2,-2.1593317E-2,2.247557E-3,2.138362E-3,2.269013E-2],"split_indices":[6,0,4,3,4,4,4,10,1,0,0,3,3,1,3,7,7,0,0,0,0,0,0,7,1,0,0,6,3,0,4,4,4,0,0,0,0,0,6,0,0,0,0,0,0,12,1,1,7,7,0,0,0,0,0,0,0,0,0],"split_type":[0,0,0,0,0,0,0,0,0,0,0,0,0,0,0,0,0,0,0,0,0,0,0,0,0,0,0,0,0,0,0,0,0,0,0,0,0,0,0,0,0,0,0,0,0,0,0,0,0,0,0,0,0,0,0,0,0,0,0],"sum_hessian":[6.6945815E3,5.0482236E3,1.646358E3,4.6454766E3,4.0274728E2,7.8246936E2,3.8630073E3,4.1515225E2,3.447855E3,2.5675334E3,8.803216E2,8.265974E1,1.5636982E3,1.1218053E3,4.4189294E2,7.412941E2,3.8051117E2,3.4278094E2,7.23713E1,1.7264459E2,5.6864954E2,1.3041876E2,2.500924E2,1.6674229E1,4.2521872E2,4.685901E0,4.205328E2,3.7653888E2,2.6208399E1,2.6162581E0,2.359214E1,1.6827237E2,6.1419696E2,9.310511E1,5.2109186E2,1.562203E2,1.2052065E1,3.05169E2,7.136989E1,1.999835E0,6.9370056E1,1.605184E2,1.446506E2,1.9999117E0,2.1592228E1,1.1918329E1,7.074141E1,6.1105027E0,5.8078265E0,6.674163E1,3.9997818E0,2.1469975E1,4.5271656E1,3.7498934E0,1.29243355E1,4.185848E0,1.6219784E0,3.2441664E0,2.8663363E0],"tree_param":{"num_deleted":"0","num_feature":"13","num_nodes":"59","size_leaf_vector":"0"}},{"base_weights":[6.236178E-3,1.266917E-1,-7.145842E-2,1.6917486E-1,-1.3685346E-1,7.7534094E-2,5.0070983E-1,-2.4316889E-1,-4.143965E-2,1.05106324E-1,-4.1853863E-1,-6.7202398E-3,1.9323075E-1,-2.6216248E-1,1.563639E-2,-3.8775816E-4,4.8656664E-3,-9.213039E-1,-2.2425632E-1,1.1697082E-1,5.748392E-1,-1.7955724E-2,2.641029E-1,-1.4041359E-2,-2.9011762E-3,2.2736583E-3,8.282442E-3,5.130543E-3,-4.4277213E-3,-2.4882997E-3,-1.8195355E-2,3.7304512E-1,-5.325258E-1,5.761528E-3,1.2720037E-3,9.512954E-4,-3.775673E-3,8.67165E-1,2.8155726E-1,-4.277419E-3,1.5919842E-2,-3.7135568E-3,3.2450634E-4,6.617509E-1,3.5741392E-1,8.578302E-1,3.181824E-1,8.184082E-4,2.2391753E-2,-1.7894266E-2,1.2584636E-2,-2.7636204E-2,3.7961692E-1,-8.850876E-3,5.7587414E-3,9.673364E-3,2.2569645E-2,-5.0872574E-3,-1.1443362E-2,5.7297125E-3,-5.2846842E-3],"categories":[],"categories_nodes":[],"categories_segments":[],"categories_sizes":[],"default_left":[true,true,false,true,true,true,true,true,false,true,true,false,false,false,false,false,false,false,false,true,true,false,true,false,false,false,false,false,false,false,false,false,true,false,false,false,false,true,true,false,false,false,false,true,false,false,false,false,false,false,false,false,false,false,false,false,false,false,false,false,false],"id":4,"left_children":[1,5,3,19,7,9,43,17,13,11,31,41,25,27,15,-1,-1,29,23,21,37,35,33,-1,-1,-1,-1,-1,-1,-1,-1,39,57,-1,-1,-1,-1,55,53,-1,-1,-1,-1,45,51,49,47,-1,-1,-1,-1,-1,59,-1,-1,-1,-1,-1,-1,-1,-1],"loss_changes":[6.2776215E1,4.83568E1,6.4166824E1,1.8452885E1,3.2524574E1,3.1795313E1,7.050415E0,1.9449715E1,2.1287888E1,2.1701792E1,1.1044184E1,7.7752867E0,1.3932407E1,1.33429985E1,1.9967247E1,0E0,0E0,1.2312691E1,1.5181984E1,1.5325834E1,8.517445E0,9.036158E0,9.855122E0,0E0,0E0,0E0,0E0,0E0,0E0,0E0,0E0,8.300315E0,5.2169876E0,0E0,0E0,0E0,0E0,6.2793922E0,6.340749E0,0E0,0E0,0E0,0E0,9.69099E0,8.51054E0,1.1691956E1,1.7747581E1,0E0,0E0,0E0,0E0,0E0,4.6341057E0,0E0,0E0,0E0,0E0,0E0,0E0,0E0,0E0],"parents":[2147483647,0,0,2,2,1,1,4,4,5,5,9,9,8,8,14,14,7,7,3,3,19,19,18,18,12,12,13,13,17,17,10,10,22,22,21,21,20,20,31,31,11,11,6,6,43,43,46,46,45,45,44,44,38,38,37,37,32,32,52,52],"right_children":[2,6,4,20,8,10,44,18,14,12,32,42,26,28,16,-1,-1,30,24,22,38,36,34,-1,-1,-1,-1,-1,-1,-1,-1,40,58,-1,-1,-1,-1,56,54,-1,-1,-1,-1,46,52,50,48,-1,-1,-1,-1,-1,60,-1,-1,-1,-1,-1,-1,-1,-1],"split_conditions":[-2.836725E-1,1.702581E0,-6.302379E-1,1.7366612E0,5.428626E0,2.80344E0,-8.90266E-1,-1.8004098E0,-6.106779E-1,-4.3727008E-1,-1.4428588E0,-8.8652456E-1,1.7366612E0,-1.01493664E-1,1.6687951E0,-3.8775816E-4,4.8656664E-3,-4.077003E-1,-1.7437387E0,4.971073E-2,3.5895225E-2,4.574916E-1,3.6692652E-1,-1.4041359E-2,-2.9011762E-3,2.2736583E-3,8.282442E-3,5.130543E-3,-4.4277213E-3,-2.4882997E-3,-1.8195355E-2,-1.3186692E-1,5.1096754E0,5.761528E-3,1.2720037E-3,9.512954E-4,-3.775673E-3,-7.0170164E-1,-7.8665864E-1,-4.277419E-3,1.5919842E-2,-3.7135568E-3,3.2450634E-4,1.872929E0,-1.7601064E0,-9.970554E-1,-1.1196459E-1,8.184082E-4,2.2391753E-2,-1.7894266E-2,1.2584636E-2,-2.7636204E-2,5.0524426E-1,-8.850876E-3,5.7587414E-3,9.673364E-3,2.2569645E-2,-5.0872574E-3,-1.1443362E-2,5.7297125E-3,-5.2846842E-3],"split_indices":[6,0,3,4,10,3,8,4,7,5,8,4,4,6,4,0,0,8,5,7,8,4,6,0,0,0,0,0,0,0,0,4,10,0,0,0,0,3,5,0,0,0,0,0,4,4,5,0,0,0,0,0,4,0,0,0,0,0,0,0,0],"split_type":[0,0,0,0,0,0,0,0,0,0,0,0,0,0,0,0,0,0,0,0,0,0,0,0,0,0,0,0,0,0,0,0,0,0,0,0,0,0,0,0,0,0,0,0,0,0,0,0,0,0,0,0,0,0,0,0,0,0,0,0,0],"sum_hessian":[6.707761E3,2.6301108E3,4.0776504E3,8.713511E2,3.2062993E3,2.3245876E3,3.0552313E2,1.516514E3,1.6897852E3,2.2021877E3,1.22399826E2,9.705705E2,1.2316172E3,3.471801E2,1.3426051E3,1.1886581E3,1.5394704E2,4.1146645E1,1.4753674E3,7.720036E2,9.934746E1,4.027053E2,3.692983E2,2.3417442E1,1.45195E3,1.154036E3,7.7581184E1,3.0127695E1,3.1705243E2,1.4539292E1,2.6607351E1,1.5406864E1,1.06992966E2,1.9354443E2,1.7575388E2,3.006657E2,1.0203957E2,4.9754814E1,4.9592644E1,8.238197E0,7.168667E0,1.00166695E2,8.704038E2,1.438544E2,1.6166873E2,9.158537E1,5.2269024E1,4.3670914E1,8.598109E0,2.4358006E0,8.9149574E1,1.4999295E0,1.6016881E2,6.4301343E0,4.316251E1,4.1156025E1,8.598788E0,6.959242E1,3.7400543E1,1.5261673E2,7.5520835E0],"tree_param":{"num_deleted":"0","num_feature":"13","num_nodes":"61","size_leaf_vector":"0"}},{"base_weights":[1.0113546E-2,9.776468E-2,-1.6591845E-1,2.228151E-1,-5.4887272E-3,-3.8422194E-1,2.4059525E-1,5.505798E-1,2.0196618E-1,-7.009769E-1,4.158437E-3,1.8856844E-1,-3.979083E-2,-1.0351848E-1,-2.7696782E-1,-4.2873862E-1,-5.1051907E-2,6.53805E-2,-2.2095205E-1,5.5083386E-3,-1.2549656E-4,5.6759955E-4,-1.8696276E-3,-2.7259424E-2,-2.673534E-1,4.32075E-3,-3.259783E-4,-5.039608E-3,-7.518002E-4,-5.657065E-1,-9.784E-4,-2.7291112E-2,1.79566E-3,-9.192634E-3,2.4174273E-3,-3.7405622E-1,-1.350629E-1,4.4164476E-3,-2.86339E-3,2.688238E-3,1.6092254E-2,8.573411E-3,-5.4077753E-3,8.0243E-3,-5.508323E-3,-4.6864405E-1,8.8063055E-1,-9.984583E-1,-8.696147E-2,4.0606083E-3,-1.912822E-2,-2.741066E-2,4.6438747E-3,-9.907461E-3,-6.2194746E-4,2.727363E-2,3.4805986E-3],"categories":[],"categories_nodes":[],"categories_segments":[],"categories_sizes":[],"default_left":[true,true,true,true,true,false,true,false,false,true,true,true,true,false,true,true,true,false,true,false,false,false,false,false,true,false,false,false,false,true,true,false,false,false,false,true,true,false,false,false,false,false,false,false,false,true,true,false,true,false,false,false,false,false,false,false,false],"id":5,"left_children":[1,3,13,5,9,45,7,43,39,47,11,25,21,15,23,29,17,19,27,-1,-1,-1,-1,-1,35,-1,-1,-1,-1,33,31,-1,-1,-1,-1,41,37,-1,-1,-1,-1,-1,-1,-1,-1,53,55,49,51,-1,-1,-1,-1,-1,-1,-1,-1],"loss_changes":[1.03783066E2,5.797972E1,1.5493626E1,2.1919403E1,1.6502434E1,6.1710157E0,2.3626236E1,7.0871277E0,1.0397713E1,6.1464577E0,1.966129E1,1.25131645E1,1.5328462E1,2.4426212E1,1.3217674E1,1.1651077E1,2.4384249E1,1.8311724E1,1.2179609E1,0E0,0E0,0E0,0E0,0E0,1.1291E1,0E0,0E0,0E0,0E0,1.1626663E1,1.2634174E1,0E0,0E0,0E0,0E0,8.818474E0,1.200069E1,0E0,0E0,0E0,0E0,0E0,0E0,0E0,0E0,5.806714E0,2.5087166E0,1.159432E1,8.921779E0,0E0,0E0,0E0,0E0,0E0,0E0,0E0,0E0],"parents":[2147483647,0,0,1,1,3,3,6,6,4,4,10,10,2,2,13,13,16,16,17,17,12,12,14,14,11,11,18,18,15,15,30,30,29,29,24,24,36,36,8,8,35,35,7,7,5,5,9,9,47,47,48,48,45,45,46,46],"right_children":[2,4,14,6,10,46,8,44,40,48,12,26,22,16,24,30,18,20,28,-1,-1,-1,-1,-1,36,-1,-1,-1,-1,34,32,-1,-1,-1,-1,42,38,-1,-1,-1,-1,-1,-1,-1,-1,54,56,50,52,-1,-1,-1,-1,-1,-1,-1,-1],"split_conditions":[4.6126175E-1,-2.836725E-1,-3.8442677E-1,-2.3186073E0,-1.638515E0,2.8182886E0,-1.7571115E0,2.8182886E0,2.0902655E0,2.4067102E-1,-6.5267944E-1,1E0,5.237763E-1,-1.3920615E0,-2.0182977E0,1.8801256E0,-1.4902596E-1,-4.678164E-1,3.2919842E-1,5.5083386E-3,-1.2549656E-4,5.6759955E-4,-1.8696276E-3,-2.7259424E-2,3.3337185E-1,4.32075E-3,-3.259783E-4,-5.039608E-3,-7.518002E-4,1.9086552E0,5.4859227E-1,-2.7291112E-2,1.79566E-3,-9.192634E-3,2.4174273E-3,-1.8488387E0,-9.9066836E-1,4.4164476E-3,-2.86339E-3,2.688238E-3,1.6092254E-2,8.573411E-3,-5.4077753E-3,8.0243E-3,-5.508323E-3,2.710799E0,-8.5989964E-1,-6.8906504E-1,-1.4456867E-1,4.0606083E-3,-1.912822E-2,-2.741066E-2,4.6438747E-3,-9.907461E-3,-6.2194746E-4,2.727363E-2,3.4805986E-3],"split_indices":[2,6,0,6,1,3,2,3,1,3,3,11,6,1,1,9,3,8,8,0,0,0,0,0,1,0,0,0,0,8,2,0,0,0,0,1,3,0,0,0,0,0,0,0,0,9,8,3,6,0,0,0,0,0,0,0,0],"split_type":[0,0,0,0,0,0,0,0,0,0,0,0,0,0,0,0,0,0,0,0,0,0,0,0,0,0,0,0,0,0,0,0,0,0,0,0,0,0,0,0,0,0,0,0,0,0,0,0,0,0,0,0,0,0,0,0,0],"sum_hessian":[6.7263174E3,4.4904165E3,2.235901E3,2.0308499E3,2.4595667E3,5.7791046E1,1.9730588E3,2.1863019E2,1.7544286E3,3.3650047E1,2.4259165E3,4.668838E2,1.9590327E3,1.4315154E3,8.043855E2,1.9885979E2,1.2326556E3,7.3141656E2,5.0123907E2,1.3279439E2,5.986222E2,1.0638113E3,8.952215E2,4.4997168E0,7.998858E2,2.9280118E2,1.740826E2,2.6662762E2,2.3461147E2,1.5062878E2,4.8231E1,2.9997854E0,4.5231213E1,1.3210045E2,1.8528343E1,4.4276248E2,3.5712332E2,4.9527637E1,3.0759567E2,1.7434578E3,1.0970821E1,8.668395E0,4.340941E2,2.1107896E2,7.5512314E0,5.4175148E1,3.6158981E0,2.266782E1,1.0982227E1,5.302161E0,1.7365658E1,1.9999712E0,8.982256E0,3.3899784E1,2.0275364E1,1.3079321E0,2.307966E0],"tree_param":{"num_deleted":"0","num_feature":"13","num_nodes":"57","size_leaf_vector":"0"}},{"base_weights":[1.2539204E-2,1.2968211E-1,-5.9335362E-2,-2.3417354E-1,1.544665E-2,2.2210619E-1,-5.7712156E-2,-5.366761E-2,1.2032936E-1,2.2206445E-1,-1.1632234E-1,-3.2131486E-2,-6.32293E-1,1.6153994E-1,3.9624283E-1,4.9329126E-1,-2.2603045E-1,6.249842E-2,3.0919117E-1,1.2043912E-3,-1.3194624E-2,-2.4411467E-1,4.3187793E-2,2.6742902E-1,-8.5902624E-2,-1.3741568E-1,-3.5549018E-1,-8.118797E-3,-3.247991E-1,-5.924189E-3,4.8651564E-4,-1.0393439E-3,6.1848443E-3,1.2558554E-3,-1.2628319E-3,1.1002183E0,-2.7534994E-1,-6.660571E-4,3.8122342E-3,1.3026536E-3,5.7077496E-3,-5.7049235E-3,-8.2976425E-5,-6.545777E-3,-1.334114E-3,-1.67012E-2,-4.8403367E-3,-4.629815E-1,-1.867586E-1,-1.6758708E-2,-5.7616723E-3,-9.91626E-3,-3.2976607E-3,-4.597358E-3,4.749078E-3,-2.245104E-3,-2.7182702E-2,7.204647E-3,-2.496401E-3,-1.2196619E-2,-6.9148117E-4,2.7323134E-2,9.247217E-3],"categories":[],"categories_nodes":[],"categories_segments":[],"categories_sizes":[],"default_left":[true,true,false,true,true,false,false,true,true,false,true,false,true,true,true,true,false,true,true,false,false,false,true,true,true,true,true,true,false,false,false,false,false,false,false,true,true,false,false,false,false,false,false,false,false,false,false,true,true,false,false,false,false,false,false,false,false,false,false,false,false,false,false],"id":6,"left_children":[1,5,3,25,7,13,21,11,9,37,41,33,45,17,15,57,59,19,39,-1,-1,35,23,53,29,27,47,31,51,-1,-1,-1,-1,-1,-1,61,43,-1,-1,-1,-1,-1,-1,-1,-1,-1,-1,49,55,-1,-1,-1,-1,-1,-1,-1,-1,-1,-1,-1,-1,-1,-1],"loss_changes":[5.6594166E1,4.4268528E1,5.4466293E1,1.4649353E1,2.1150595E1,1.8053215E1,1.587835E1,2.1916862E1,2.790342E1,1.22135315E1,1.1501747E1,1.2552184E1,1.0315887E1,1.8572056E1,2.6675682E1,8.159019E0,6.9359407E0,1.9651371E1,1.1653835E1,0E0,0E0,1.2449924E1,1.5855666E1,9.472489E0,1.4583801E1,1.68208E1,1.0042992E1,1.274033E1,9.529741E0,0E0,0E0,0E0,0E0,0E0,0E0,2.5568724E0,1.0404722E1,0E0,0E0,0E0,0E0,0E0,0E0,0E0,0E0,0E0,0E0,1.1075859E1,8.961256E0,0E0,0E0,0E0,0E0,0E0,0E0,0E0,0E0,0E0,0E0,0E0,0E0,0E0,0E0],"parents":[2147483647,0,0,2,2,1,1,4,4,8,8,7,7,5,5,14,14,13,13,17,17,6,6,22,22,3,3,25,25,24,24,27,27,11,11,21,21,9,9,18,18,10,10,36,36,12,12,26,26,47,47,28,28,23,23,48,48,15,15,16,16,35,35],"right_children":[2,6,4,26,8,14,22,12,10,38,42,34,46,18,16,58,60,20,40,-1,-1,36,24,54,30,28,48,32,52,-1,-1,-1,-1,-1,-1,62,44,-1,-1,-1,-1,-1,-1,-1,-1,-1,-1,50,56,-1,-1,-1,-1,-1,-1,-1,-1,-1,-1,-1,-1,-1,-1],"split_conditions":[-3.0356264E-1,-2.7158523E-2,-5.463367E-1,1.3534197E-2,5.7298076E-1,1.5508934E0,-7.467591E-1,1.858498E0,1.1805326E0,-5.868626E-1,2.359121E-2,-1.14204735E-1,1.0788899E-1,-5.9955704E-1,-8.241111E-1,1.3590409E0,-1.9444923E0,1.7932172E0,-6.238311E-1,1.2043912E-3,-1.3194624E-2,-1.697006E0,-7.816956E-1,-1.1883522E0,1.649332E0,6.864386E-1,4E0,1.1263878E0,-3.5468224E-2,-5.924189E-3,4.8651564E-4,-1.0393439E-3,6.1848443E-3,1.2558554E-3,-1.2628319E-3,1.8964041E0,-8.3437777E-1,-6.660571E-4,3.8122342E-3,1.3026536E-3,5.7077496E-3,-5.7049235E-3,-8.2976425E-5,-6.545777E-3,-1.334114E-3,-1.67012E-2,-4.8403367E-3,-1.706603E0,1.6149902E0,-1.6758708E-2,-5.7616723E-3,-9.91626E-3,-3.2976607E-3,-4.597358E-3,4.749078E-3,-2.245104E-3,-2.7182702E-2,7.204647E-3,-2.496401E-3,-1.2196619E-2,-6.9148117E-4,2.7323134E-2,9.247217E-3],"split_indices":[6,2,5,0,1,0,1,2,6,2,5,2,6,2,2,8,6,8,5,0,0,8,0,6,9,2,12,8,6,0,0,0,0,0,0,9,6,0,0,0,0,0,0,0,0,0,0,5,2,0,0,0,0,0,0,0,0,0,0,0,0,0,0],"split_type":[0,0,0,0,0,0,0,0,0,0,0,0,0,0,0,0,0,0,0,0,0,0,0,0,0,0,0,0,0,0,0,0,0,0,0,0,0,0,0,0,0,0,0,0,0,0,0,0,0,0,0,0,0,0,0,0,0,0,0,0,0,0,0],"sum_hessian":[6.7217197E3,2.5559578E3,4.165762E3,1.2479923E3,2.91777E3,1.7117242E3,8.442335E2,1.7587871E3,1.1589829E3,8.105378E2,3.4844516E2,1.695675E3,6.3112106E1,1.2700054E3,4.417189E2,3.8212372E2,5.9595192E1,7.6012714E2,5.0987823E2,7.418312E2,1.829596E1,2.9649283E2,5.4774066E2,2.0011813E2,3.4762253E2,6.9426843E2,5.537239E2,4.1080673E2,2.834617E2,9.031548E1,2.5730704E2,3.5804068E2,5.276605E1,5.5327747E2,1.1423976E3,6.7325172E0,2.897603E2,1.3833669E2,6.722011E2,1.6945328E2,3.4042496E2,9.3811356E1,2.546338E2,1.3594711E2,1.538132E2,2.0422705E1,4.26894E1,3.382439E2,2.1547995E2,1.8236557E1,3.2000735E2,4.9694263E1,2.3376744E2,2.309239E1,1.7702574E2,2.1273026E2,2.7496893E0,3.6502643E2,1.7097294E1,1.2487985E1,4.710721E1,2.1802392E0,4.552278E0],"tree_param":{"num_deleted":"0","num_feature":"13","num_nodes":"63","size_leaf_vector":"0"}},{"base_weights":[-4.4184853E-3,9.858978E-2,-1.4452782E-1,4.9403235E-2,-2.5431764E-1,3.548379E-1,6.6475004E-2,1.07493974E-1,-1.3485193E-1,-3.839567E-2,1.90404E-1,9.194542E-2,5.493691E-1,5.945174E-1,-1.3899349E0,-3.4674606E-1,-1.2689784E-1,1.2457696E-3,4.0691467E-3,-1.5557615E-2,-3.751911E-1,8.739286E-3,-1.2802743E-2,-2.2984397E-1,-4.7332096E-1,-2.7145857E-2,5.6838606E-2,-9.642015E-3,-4.983283E-3,-1.1852806E-3,2.9715886E-3,-1.6526027E-1,2.9548448E-1,-1.185468E-2,-1.8234877E-3,6.120038E-3,-1.8261032E-2,-3.127805E-2,1.911271E-1,1.8339546E-3,1.098928E-2,1.1794586E-3,-2.8548834E-3,-5.7809395E-3,7.16646E-4,1.4841669E-2,-2.7533792E-2,-2.4844415E-3,-7.3181554E-3,1.326529E-1,-9.710169E-1,1.9629784E-3,-2.750059E-2,3.7876808E-4,6.401962E-3,-3.9604637E-3,-1.0064692E-2],"categories":[],"categories_nodes":[],"categories_segments":[],"categories_sizes":[],"default_left":[true,false,true,true,true,true,false,true,true,false,true,true,false,true,false,true,true,false,false,false,true,false,false,false,false,false,true,false,false,false,false,true,true,false,false,false,false,true,true,false,false,false,false,false,false,false,false,false,false,true,false,false,false,false,false,false,false],"id":7,"left_children":[1,5,3,25,15,11,7,9,19,29,17,49,13,21,45,23,31,-1,-1,43,55,-1,-1,47,27,-1,37,-1,-1,-1,-1,33,35,-1,-1,-1,-1,41,39,-1,-1,-1,-1,-1,-1,-1,-1,-1,-1,53,51,-1,-1,-1,-1,-1,-1],"loss_changes":[9.667817E1,3.1769146E1,6.043024E1,1.5464304E1,2.1343239E1,2.1987354E1,2.8330082E1,3.4471405E1,1.6647713E1,1.2625234E1,1.9204521E1,7.9116697E0,2.163478E1,1.5566612E1,8.559545E0,1.5541809E1,1.2345601E1,0E0,0E0,1.0667131E1,5.9757767E0,0E0,0E0,8.08844E0,1.2742119E1,0E0,1.2095929E1,0E0,0E0,0E0,0E0,1.5808418E1,1.5514029E1,0E0,0E0,0E0,0E0,1.2784883E1,1.4196648E1,0E0,0E0,0E0,0E0,0E0,0E0,0E0,0E0,0E0,0E0,6.1750336E0,7.758002E0,0E0,0E0,0E0,0E0,0E0,0E0],"parents":[2147483647,0,0,2,2,1,1,6,6,7,7,5,5,12,12,4,4,10,10,8,8,13,13,15,15,3,3,24,24,9,9,16,16,31,31,32,32,26,26,38,38,37,37,19,19,14,14,23,23,11,11,50,50,49,49,20,20],"right_children":[2,6,4,26,16,12,8,10,20,30,18,50,14,22,46,24,32,-1,-1,44,56,-1,-1,48,28,-1,38,-1,-1,-1,-1,34,36,-1,-1,-1,-1,42,40,-1,-1,-1,-1,-1,-1,-1,-1,-1,-1,54,52,-1,-1,-1,-1,-1,-1],"split_conditions":[1.378252E-1,-1.4776437E0,-4.1025886E-1,-2.062382E0,1.2695369E-1,3.5069767E-1,9.606104E-1,-7.2864544E-1,3.0493876E-2,1.6706103E0,-5.131657E-2,1.6161222E0,1.4636656E0,1.4748539E0,-2.1872072E0,2.1785507E-2,2.1242766E0,1.2457696E-3,4.0691467E-3,-7.159381E-1,4.715962E-1,8.739286E-3,-1.2802743E-2,2.3242098E-1,-3.0879056E-1,-2.7145857E-2,4.3469048E-1,-9.642015E-3,-4.983283E-3,-1.1852806E-3,2.9715886E-3,-1.5254899E0,2.818271E0,-1.185468E-2,-1.8234877E-3,6.120038E-3,-1.8261032E-2,-3.4834817E-2,6.502824E-1,1.8339546E-3,1.098928E-2,1.1794586E-3,-2.8548834E-3,-5.7809395E-3,7.16646E-4,1.4841669E-2,-2.7533792E-2,-2.4844415E-3,-7.3181554E-3,4.7408468E-1,-2.4399018E-1,1.9629784E-3,-2.750059E-2,3.7876808E-4,6.401962E-3,-3.9604637E-3,-1.0064692E-2],"split_indices":[2,2,3,5,5,3,6,2,3,0,5,8,7,8,6,3,3,0,0,7,7,0,0,0,7,0,8,0,0,0,0,0,3,0,0,0,0,8,0,0,0,0,0,0,0,0,0,0,0,8,3,0,0,0,0,0,0],"split_type":[0,0,0,0,0,0,0,0,0,0,0,0,0,0,0,0,0,0,0,0,0,0,0,0,0,0,0,0,0,0,0,0,0,0,0,0,0,0,0,0,0,0,0,0,0,0,0,0,0,0,0,0,0,0,0,0,0],"sum_hessian":[6.69868E3,3.8604678E3,2.8382126E3,1.0259645E3,1.8122482E3,4.2993762E2,3.43053E3,2.8498855E3,5.806445E2,1.0327117E3,1.8171738E3,1.8284206E2,2.4709557E2,2.414739E2,5.6216736E0,1.0503441E3,7.6190405E2,9.369683E2,8.802055E2,3.8803845E2,1.9260603E2,2.3497998E2,6.4939194E0,5.46036E2,5.043081E2,3.7492962E0,1.0222152E3,1.6380537E2,3.4050272E2,8.691703E2,1.6354141E2,6.9846655E2,6.3437504E1,3.096891E1,6.674976E2,5.8066082E1,5.3714213E0,6.172148E2,4.0500043E2,3.7008307E2,3.491735E1,3.7109015E2,2.4612463E2,5.555071E1,3.3248773E2,1.121861E0,4.4998126E0,4.7032214E2,7.571388E1,1.7609816E2,6.7438974E0,3.2440603E0,3.4998372E0,1.3394066E2,4.2157505E1,1.5508444E2,3.752159E1],"tree_param":{"num_deleted":"0","num_feature":"13","num_nodes":"57","size_leaf_vector":"0"}},{"base_weights":[1.961857E-3,-2.0085443E-2,3.9128375E-1,-1.4108524E-1,5.3319145E-2,-2.2166917E-1,3.0212425E-2,5.4137204E-3,2.1954851E-1,9.637531E-2,-7.01866E-2,2.1761665E-3,-3.8907998E-3,1.0239347E0,1.9106595E-1,4.6109683E-3,1.9316465E-4,1.2653146E-3,-1.7966786E-3,-1.3739327E-1,-3.336716E-1,-1.1093721E-3,-6.1688023E-3,-1.6307572E-4,-3.5725937E-3,6.958361E-2,-4.2762902E-1,-3.4485091E-3,-2.3992348E-2,4.647174E-1,-8.635043E-2,5.1898146E-1,-3.393332E-1,1.6331603E-3,-3.73269E-3,-1.6122416E0,6.863396E-2,-1.3174745E-1,1.4461212E0,-1.8201184E-2,7.3575554E-4,8.137939E-2,5.842592E-1,-5.0352734E-1,2.7172703E-2,-1.0718302E-3,-1.9445365E-2,-7.517233E-4,1.9270645E-2,4.429979E-3,9.266494E-3,5.606889E-3,1.6022399E-2,-7.530006E-3,-2.7455997E-2,2.3929747E-2,7.4331444E-3],"categories":[],"categories_nodes":[],"categories_segments":[],"categories_sizes":[],"default_left":[false,false,true,true,true,true,true,true,false,true,true,false,false,true,true,false,false,false,false,false,true,false,false,false,false,true,false,false,false,true,true,false,false,false,false,false,true,false,true,false,false,false,false,true,false,false,false,false,false,false,false,false,false,false,false,false,false],"id":8,"left_children":[1,3,29,5,7,19,25,9,13,11,17,-1,-1,51,15,-1,-1,-1,-1,23,21,-1,-1,-1,-1,33,27,-1,-1,31,35,41,43,-1,-1,53,37,39,55,-1,-1,47,49,45,-1,-1,-1,-1,-1,-1,-1,-1,-1,-1,-1,-1,-1],"loss_changes":[5.781832E1,5.6622128E1,1.2662376E1,3.322733E1,3.159726E1,1.5451881E1,1.3881655E1,2.1181618E1,2.033754E1,3.3018578E1,1.6583595E1,0E0,0E0,2.6795082E0,2.1983856E1,0E0,0E0,0E0,0E0,1.4409098E1,2.0575401E1,0E0,0E0,0E0,0E0,1.1965542E1,1.4201509E1,0E0,0E0,1.3652473E1,1.1376965E1,8.373306E0,7.532771E0,0E0,0E0,1.8312464E0,1.2054465E1,8.440185E0,1.4917383E0,0E0,0E0,6.8518386E0,6.0617523E0,7.177656E0,0E0,0E0,0E0,0E0,0E0,0E0,0E0,0E0,0E0,0E0,0E0,0E0,0E0],"parents":[2147483647,0,0,1,1,3,3,4,4,7,7,9,9,8,8,14,14,10,10,5,5,20,20,19,19,6,6,26,26,2,2,29,29,25,25,30,30,36,36,37,37,31,31,32,32,43,43,41,41,42,42,13,13,35,35,38,38],"right_children":[2,4,30,6,8,20,26,10,14,12,18,-1,-1,52,16,-1,-1,-1,-1,24,22,-1,-1,-1,-1,34,28,-1,-1,32,36,42,44,-1,-1,54,38,40,56,-1,-1,48,50,46,-1,-1,-1,-1,-1,-1,-1,-1,-1,-1,-1,-1,-1],"split_conditions":[1.702581E0,-4.309785E-1,-2.9040408E-1,2.2859802E0,8.8689977E-1,-6.1333116E-2,2.7544742E0,-2.6372743E-1,-1.4858497E0,9.606104E-1,-6.705009E-1,2.1761665E-3,-3.8907998E-3,-5.3524643E-1,2.1377575E-1,4.6109683E-3,1.9316465E-4,1.2653146E-3,-1.7966786E-3,-3.1193036E-1,-3.8072398E-1,-1.1093721E-3,-6.1688023E-3,-1.6307572E-4,-3.5725937E-3,6.006644E-1,4.5235157E-2,-3.4485091E-3,-2.3992348E-2,1.2992575E0,-2.3534997E-1,-1.1819825E0,2.8182197E0,1.6331603E-3,-3.73269E-3,-1.5768953E-1,2.6996968E0,-1.4428588E0,-5.4589707E-1,-1.8201184E-2,7.3575554E-4,5.85674E-1,2.9593164E-1,3.6605114E-1,2.7172703E-2,-1.0718302E-3,-1.9445365E-2,-7.517233E-4,1.9270645E-2,4.429979E-3,9.266494E-3,5.606889E-3,1.6022399E-2,-7.530006E-3,-2.7455997E-2,2.3929747E-2,7.4331444E-3],"split_indices":[0,5,6,9,1,3,3,3,3,6,8,0,0,6,0,0,0,0,0,0,6,0,0,0,0,6,6,0,0,8,6,5,3,0,0,3,3,8,8,0,0,8,3,3,0,0,0,0,0,0,0,0,0,0,0,0,0],"split_type":[0,0,0,0,0,0,0,0,0,0,0,0,0,0,0,0,0,0,0,0,0,0,0,0,0,0,0,0,0,0,0,0,0,0,0,0,0,0,0,0,0,0,0,0,0,0,0,0,0,0,0,0,0,0,0,0,0],"sum_hessian":[6.735988E3,6.374973E3,3.6101474E2,2.4071077E3,3.9678657E3,1.637007E3,7.701007E2,3.0801897E3,8.876759E2,1.3980587E3,1.682131E3,1.2014072E3,1.9665146E2,3.0356884E1,8.5731903E2,4.714265E2,3.8589252E2,4.578038E2,1.2243271E3,9.341264E2,7.0288055E2,2.2075755E2,4.8212302E2,4.621492E2,4.719772E2,7.091212E2,6.097951E1,5.37938E1,7.1857114E0,3.12907E2,4.810773E1,2.931245E2,1.9782505E1,6.1950714E2,8.961407E1,4.435749E0,4.367198E1,3.8125862E1,5.54612E0,5.12192E0,3.300394E1,3.8049877E1,2.5507463E2,1.8474487E1,1.3080178E0,1.2603148E1,5.8713393E0,3.449869E1,3.5511851E0,6.578345E1,1.8929118E2,5.73747E0,2.4619413E1,1.1859447E0,3.2498043E0,4.1740184E0,1.3721019E0],"tree_param":{"num_deleted":"0","num_feature":"13","num_nodes":"57","size_leaf_vector":"0"}},{"base_weights":[5.6267553E-3,-2.2037941E-1,3.7822846E-2,8.325614E-2,-1.5293048E-1,-3.7987735E-2,-4.122958E-1,4.2338856E-2,2.540005E-1,3.7084933E-2,3.9146647E-1,1.353425E-1,-2.2568205E-2,-7.4225134E-4,2.9818718E-3,-2.8610703E-1,1.6286536E-1,-3.0183753E-2,-3.9352718E-1,1.2937962E-3,-1.2842679E-3,1.8494038E-3,-5.670692E-3,-9.659093E-2,3.0068082E-1,-9.179291E-4,-1.4951055E-2,-6.63354E-1,-2.3804276E-1,-3.720836E-1,-1.5859351E0,-6.4382767E-3,2.446824E-4,1.1394964E0,-7.807124E-2,-8.480658E-4,-7.672319E-3,-6.840743E-3,5.7887705E-3,-1.24180555E-1,4.4884735E-1,-4.908187E-1,3.18964E-1,4.860279E-3,-2.430337E-3,2.3266685E-3,6.285388E-3,-1.3754894E-2,-6.8500554E-3,2.7539138E-2,3.671525E-1,-9.541214E-3,6.9299713E-3,-4.2941845E-3,1.0374973E-2,-1.1036946E-2,3.0858421E-3,2.9114275E-3,2.7114753E-2,-1.3018504E-2,-2.7132047E-2],"categories":[],"categories_nodes":[],"categories_segments":[],"categories_sizes":[],"default_left":[true,true,true,true,true,true,true,false,false,true,false,true,true,false,false,false,false,true,false,false,false,false,false,true,true,false,false,true,true,false,false,false,false,false,false,false,false,false,false,true,true,true,true,false,false,false,false,false,false,false,true,false,false,false,false,false,false,false,false,false,false],"id":9,"left_children":[1,15,3,7,5,23,27,11,9,21,45,13,19,-1,-1,17,39,33,29,-1,-1,-1,-1,25,37,-1,-1,47,35,31,59,-1,-1,57,43,-1,-1,-1,-1,41,49,55,53,-1,-1,-1,-1,-1,-1,-1,51,-1,-1,-1,-1,-1,-1,-1,-1,-1,-1],"loss_changes":[4.8736507E1,2.10377E1,5.0808655E1,3.307968E1,3.3620464E1,1.5509192E1,1.5150162E1,2.3057076E1,2.729346E1,1.5611743E1,8.266045E0,2.4359064E1,1.8660532E1,0E0,0E0,1.9598656E1,1.0036738E1,1.1805612E1,1.2839394E1,0E0,0E0,0E0,0E0,1.964912E1,1.1152683E1,0E0,0E0,7.8966866E0,1.1563857E1,1.8655197E1,2.2100239E0,0E0,0E0,6.426941E0,8.662938E0,0E0,0E0,0E0,0E0,9.913994E0,7.7934113E0,7.4871264E0,7.62695E0,0E0,0E0,0E0,0E0,0E0,0E0,0E0,8.51569E0,0E0,0E0,0E0,0E0,0E0,0E0,0E0,0E0,0E0,0E0],"parents":[2147483647,0,0,2,2,4,4,3,3,8,8,7,7,11,11,1,1,15,15,12,12,9,9,5,5,23,23,6,6,18,18,29,29,17,17,28,28,24,24,16,16,39,39,34,34,10,10,27,27,40,40,50,50,42,42,41,41,33,33,30,30],"right_children":[2,16,4,8,6,24,28,12,10,22,46,14,20,-1,-1,18,40,34,30,-1,-1,-1,-1,26,38,-1,-1,48,36,32,60,-1,-1,58,44,-1,-1,-1,-1,42,50,56,54,-1,-1,-1,-1,-1,-1,-1,52,-1,-1,-1,-1,-1,-1,-1,-1,-1,-1],"split_conditions":[-8.8652456E-1,2.4516163E0,7.3927534E-1,6.5947694E-1,1.5635883E-2,1.5415727E0,2.0797783E-1,-5.4843813E-1,-2.3522387E-1,1.5705734E0,-4.723996E-1,2.03995E0,-2.4636929E-1,-7.4225134E-4,2.9818718E-3,-4.51944E-1,-2.618674E-1,-1.9869916E0,2.1783683E0,1.2937962E-3,-1.2842679E-3,1.8494038E-3,-5.670692E-3,1.3897202E0,-2.709358E-1,-9.179291E-4,-1.4951055E-2,-3.8813514E-1,2.1672916E0,7.7516425E-1,-6.436083E-1,-6.4382767E-3,2.446824E-4,6.07057E-1,-4.5899305E-1,-8.480658E-4,-7.672319E-3,-6.840743E-3,5.7887705E-3,4.0077642E-1,-2.458462E0,5.474918E-1,-1.2757493E0,4.860279E-3,-2.430337E-3,2.3266685E-3,6.285388E-3,-1.3754894E-2,-6.8500554E-3,2.7539138E-2,-1.2676369E0,-9.541214E-3,6.9299713E-3,-4.2941845E-3,1.0374973E-2,-1.1036946E-2,3.0858421E-3,2.9114275E-3,2.7114753E-2,-1.3018504E-2,-2.7132047E-2],"split_indices":[4,9,6,1,3,4,3,6,7,1,6,9,8,0,0,3,7,3,6,0,0,0,0,4,1,0,0,8,9,8,8,0,0,1,6,0,0,0,0,3,4,8,4,0,0,0,0,0,0,0,8,0,0,0,0,0,0,0,0,0,0],"split_type":[0,0,0,0,0,0,0,0,0,0,0,0,0,0,0,0,0,0,0,0,0,0,0,0,0,0,0,0,0,0,0,0,0,0,0,0,0,0,0,0,0,0,0,0,0,0,0,0,0,0,0,0,0,0,0,0,0,0,0,0,0],"sum_hessian":[6.697782E3,8.351686E2,5.862614E3,4.7348706E3,1.1277433E3,7.814352E2,3.463081E2,3.819551E3,9.153195E2,3.550559E2,5.602636E2,1.5699749E3,2.2495762E3,4.739484E2,1.0960265E3,7.129035E2,1.2226511E2,2.1076535E2,5.0213815E2,8.5034247E2,1.3992336E3,2.9176987E2,6.3286026E1,6.661625E2,1.15272736E2,6.468032E2,1.9359274E1,1.4188489E2,2.0442322E2,4.9326755E2,8.870619E0,3.950047E2,9.8262856E1,8.289494E0,2.0247586E2,1.319565E2,7.246672E1,1.5167858E1,1.0010487E2,6.101905E1,6.1246056E1,3.3391994E1,2.7627056E1,3.7736256E1,1.6473961E2,1.2912506E2,4.3113855E2,4.6331158E1,9.555373E1,3.0522227E0,5.8193832E1,6.6798835E0,5.151395E1,1.129456E1,1.6332497E1,2.3224371E1,1.0167623E1,3.9300404E0,4.359453E0,3.37171E0,5.4989085E0],"tree_param":{"num_deleted":"0","num_feature":"13","num_nodes":"61","size_leaf_vector":"0"}}]},"name":"gbtree"},"learner_model_param":{"base_score":"5E-1","num_class":"0","num_feature":"13"},"objective":{"name":"binary:logistic","reg_loss_param":{"scale_pos_weight":"1.74423718"}}},"version":[1,5,1]}